{"learner":{"attributes":{},"feature_names":["FG3_PCT","REB","PTS","FGA","FT_PCT","OREB","AST","WL","MIN","FG_PCT","FG3M","FTA","FG3A","TOV","FTM","FGM","PLUS_MINUS","STL","PTS_ROLL_AVG","PTS_STD_AVG","MIN_ROLL_AVG","FG_PCT_ROLL_AVG","FGM_ROLL_AVG","FGA_ROLL_AVG","FG3M_ROLL_AVG","FG3GA_ROLL_AVG","FG3_PCT_ROLL_AVG","FTM_PCT_ROLL_AVG","FTA_PCT_ROLL_AVG","FT_PCT_ROLL_AVG","REB_ROLL_AVG","AST_ROLL_AVG","PTS_LAG_1","PTS_LAG_2","PTS_LAG_3","PTS_LAG_4","PTS_LAG_5","PER","PTS_X_MIN","FGM_FGA_RATIO","3PM_3PA_RATIO","REST_IMPACT","DAYS_SINCE_LAST_GAME"],"feature_types":["float","float","float","float","float","float","float","float","float","float","float","float","float","float","float","float","float","float","float","float","float","float","float","float","float","float","float","float","float","float","float","float","float","float","float","float","float","float","float","float","float","float","float"],"gradient_booster":{"model":{"gbtree_model_param":{"num_parallel_tree":"1","num_trees":"50"},"iteration_indptr":[0,1,2,3,4,5,6,7,8,9,10,11,12,13,14,15,16,17,18,19,20,21,22,23,24,25,26,27,28,29,30,31,32,33,34,35,36,37,38,39,40,41,42,43,44,45,46,47,48,49,50],"tree_info":[0,0,0,0,0,0,0,0,0,0,0,0,0,0,0,0,0,0,0,0,0,0,0,0,0,0,0,0,0,0,0,0,0,0,0,0,0,0,0,0,0,0,0,0,0,0,0,0,0,0],"trees":[{"base_weights":[6.6172234E-3,-5.3109426E0,1.0704856E1,-8.967352E0,-1.5301522E0,7.35565E0,1.9703201E1,-1.1002925E-1,-7.2650075E-2,-3.346853E-2,6.1367475E-3,4.9879506E-2,1.03736706E-1,1.7351888E-1,2.7616194E-1],"categories":[],"categories_nodes":[],"categories_segments":[],"categories_sizes":[],"default_left":[0,0,0,0,0,0,0,0,0,0,0,0,0,0,0],"id":0,"left_children":[1,3,5,7,9,11,13,-1,-1,-1,-1,-1,-1,-1,-1],"loss_changes":[2.7570455E6,4.475143E5,4.8479438E5,5.6947625E4,6.199387E4,8.375375E4,8.0717125E4,0E0,0E0,0E0,0E0,0E0,0E0,0E0,0E0],"parents":[2147483647,0,0,1,1,2,2,3,3,4,4,5,5,6,6],"right_children":[2,4,6,8,10,12,14,-1,-1,-1,-1,-1,-1,-1,-1],"split_conditions":[1.5E1,7E0,2.6E1,3E0,1.1E1,2E1,3.5E1,-1.1002925E-1,-7.2650075E-2,-3.346853E-2,6.1367475E-3,4.9879506E-2,1.03736706E-1,1.7351888E-1,2.7616194E-1],"split_indices":[2,2,2,2,2,2,2,0,0,0,0,0,0,0,0],"split_type":[0,0,0,0,0,0,0,0,0,0,0,0,0,0,0],"sum_hessian":[4.8462E4,3.2372E4,1.609E4,1.6456E4,1.5916E4,1.1727E4,4.363E3,7.492E3,8.964E3,8.615E3,7.301E3,6.573E3,5.154E3,3.366E3,9.97E2],"tree_param":{"num_deleted":"0","num_feature":"43","num_nodes":"15","size_leaf_vector":"1"}},{"base_weights":[7.584041E-3,-5.1021504E0,1.0388648E1,-8.570028E0,-1.2290502E0,7.0701346E0,1.88494E1,-1.029253E-1,-6.473066E-2,-2.5311943E-2,1.5132059E-2,4.657247E-2,9.803697E-2,1.5998682E-1,2.506096E-1],"categories":[],"categories_nodes":[],"categories_segments":[],"categories_sizes":[],"default_left":[0,0,0,0,0,0,0,0,0,0,0,0,0,0,0],"id":1,"left_children":[1,3,5,7,9,11,13,-1,-1,-1,-1,-1,-1,-1,-1],"loss_changes":[2.5729758E6,4.3659175E5,4.491005E5,6.187975E4,5.4840812E4,7.576625E4,7.94065E4,0E0,0E0,0E0,0E0,0E0,0E0,0E0,0E0],"parents":[2147483647,0,0,1,1,2,2,3,3,4,4,5,5,6,6],"right_children":[2,4,6,8,10,12,14,-1,-1,-1,-1,-1,-1,-1,-1],"split_conditions":[4.32E2,3E0,8.84E2,5.2E1,5E0,6.16E2,1.209E3,-1.029253E-1,-6.473066E-2,-2.5311943E-2,1.5132059E-2,4.657247E-2,9.803697E-2,1.5998682E-1,2.506096E-1],"split_indices":[38,15,38,38,15,38,38,0,0,0,0,0,0,0,0],"split_type":[0,0,0,0,0,0,0,0,0,0,0,0,0,0,0],"sum_hessian":[4.8504E4,3.2505E4,1.5999E4,1.7149E4,1.5356E4,1.1493E4,4.506E3,9.413E3,7.736E3,1.0412E4,4.944E3,6.106E3,5.387E3,3.091E3,1.415E3],"tree_param":{"num_deleted":"0","num_feature":"43","num_nodes":"15","size_leaf_vector":"1"}},{"base_weights":[-3.2822518E-3,-5.048636E0,1.027824E1,-8.495502E0,-1.2222613E0,6.979887E0,1.863111E1,-1.0293595E-1,-6.532728E-2,-2.50425E-2,1.5160816E-2,4.588388E-2,9.680606E-2,1.6576019E-1,2.6931775E-1],"categories":[],"categories_nodes":[],"categories_segments":[],"categories_sizes":[],"default_left":[0,0,0,0,0,0,0,0,0,0,0,0,0,0,0],"id":2,"left_children":[1,3,5,7,9,11,13,-1,-1,-1,-1,-1,-1,-1,-1],"loss_changes":[2.5125132E6,4.2851356E5,4.391385E5,6.0258125E4,5.4062367E4,7.379219E4,7.6539125E4,0E0,0E0,0E0,0E0,0E0,0E0,0E0,0E0],"parents":[2147483647,0,0,1,1,2,2,3,3,4,4,5,5,6,6],"right_children":[2,4,6,8,10,12,14,-1,-1,-1,-1,-1,-1,-1,-1],"split_conditions":[4.32E2,3E0,8.84E2,4.8E1,5E0,6.16E2,1.326E3,-1.0293595E-1,-6.532728E-2,-2.50425E-2,1.5160816E-2,4.588388E-2,9.680606E-2,1.6576019E-1,2.6931775E-1],"split_indices":[38,15,38,38,15,38,38,0,0,0,0,0,0,0,0],"split_type":[0,0,0,0,0,0,0,0,0,0,0,0,0,0,0],"sum_hessian":[4.8433E4,3.249E4,1.5943E4,1.7092E4,1.5398E4,1.1431E4,4.512E3,8.918E3,8.174E3,1.0488E4,4.91E3,6.064E3,5.367E3,3.619E3,8.93E2],"tree_param":{"num_deleted":"0","num_feature":"43","num_nodes":"15","size_leaf_vector":"1"}},{"base_weights":[-1.6899401E-2,-5.1580586E0,1.0359909E1,-8.705217E0,-1.4803482E0,7.1312027E0,1.917883E1,-1.06923856E-1,-7.0480175E-2,-3.2548226E-2,5.922501E-3,4.837473E-2,1.0087576E-1,1.6839242E-1,2.696598E-1],"categories":[],"categories_nodes":[],"categories_segments":[],"categories_sizes":[],"default_left":[0,0,0,0,0,0,0,0,0,0,0,0,0,0,0],"id":3,"left_children":[1,3,5,7,9,11,13,-1,-1,-1,-1,-1,-1,-1,-1],"loss_changes":[2.5846442E6,4.226197E5,4.5689462E5,5.4231625E4,5.850426E4,7.9636125E4,7.7904625E4,0E0,0E0,0E0,0E0,0E0,0E0,0E0,0E0],"parents":[2147483647,0,0,1,1,2,2,3,3,4,4,5,5,6,6],"right_children":[2,4,6,8,10,12,14,-1,-1,-1,-1,-1,-1,-1,-1],"split_conditions":[1.5E1,7E0,2.6E1,3E0,1.1E1,2E1,3.5E1,-1.06923856E-1,-7.0480175E-2,-3.2548226E-2,5.922501E-3,4.837473E-2,1.0087576E-1,1.6839242E-1,2.696598E-1],"split_indices":[2,2,2,2,2,2,2,0,0,0,0,0,0,0,0],"split_type":[0,0,0,0,0,0,0,0,0,0,0,0,0,0,0],"sum_hessian":[4.8446E4,3.2396E4,1.605E4,1.649E4,1.5906E4,1.175E4,4.3E3,7.496E3,8.994E3,8.569E3,7.337E3,6.618E3,5.132E3,3.309E3,9.91E2],"tree_param":{"num_deleted":"0","num_feature":"43","num_nodes":"15","size_leaf_vector":"1"}},{"base_weights":[1.4224822E-2,-5.088667E0,1.0244974E1,-8.622185E0,-1.4704478E0,6.715508E0,1.80804E1,-1.0584278E-1,-6.9933765E-2,-3.2173272E-2,5.9162774E-3,4.7748286E-2,9.58506E-2,1.5748905E-1,2.5787053E-1],"categories":[],"categories_nodes":[],"categories_segments":[],"categories_sizes":[],"default_left":[0,0,0,0,0,0,0,0,0,0,0,0,0,0,0],"id":4,"left_children":[1,3,5,7,9,11,13,-1,-1,-1,-1,-1,-1,-1,-1],"loss_changes":[2.5330548E6,4.1387744E5,4.4642162E5,5.2268E4,5.7622664E4,6.1958188E4,8.9685625E4,0E0,0E0,0E0,0E0,0E0,0E0,0E0,0E0],"parents":[2147483647,0,0,1,1,2,2,3,3,4,4,5,5,6,6],"right_children":[2,4,6,8,10,12,14,-1,-1,-1,-1,-1,-1,-1,-1],"split_conditions":[1.5E1,7E0,2.5E1,3E0,1.1E1,2E1,3.4E1,-1.0584278E-1,-6.9933765E-2,-3.2173272E-2,5.9162774E-3,4.7748286E-2,9.58506E-2,1.5748905E-1,2.5787053E-1],"split_indices":[2,2,2,2,2,2,2,0,0,0,0,0,0,0,0],"split_type":[0,0,0,0,0,0,0,0,0,0,0,0,0,0,0],"sum_hessian":[4.8518E4,3.2372E4,1.6146E4,1.6377E4,1.5995E4,1.1133E4,5.013E3,7.426E3,8.951E3,8.659E3,7.336E3,6.643E3,4.49E3,3.851E3,1.162E3],"tree_param":{"num_deleted":"0","num_feature":"43","num_nodes":"15","size_leaf_vector":"1"}},{"base_weights":[-3.419101E-2,-5.0572214E0,1.0133734E1,-8.5484E0,-1.4497397E0,6.970441E0,1.8766983E1,-1.04767576E-1,-6.921322E-2,-3.1923283E-2,5.873541E-3,4.7301438E-2,9.895665E-2,1.6516556E-1,2.657221E-1],"categories":[],"categories_nodes":[],"categories_segments":[],"categories_sizes":[],"default_left":[0,0,0,0,0,0,0,0,0,0,0,0,0,0,0],"id":5,"left_children":[1,3,5,7,9,11,13,-1,-1,-1,-1,-1,-1,-1,-1],"loss_changes":[2.4702862E6,4.0771756E5,4.3663E5,5.154725E4,5.6525598E4,7.6667E4,7.488025E4,0E0,0E0,0E0,0E0,0E0,0E0,0E0,0E0],"parents":[2147483647,0,0,1,1,2,2,3,3,4,4,5,5,6,6],"right_children":[2,4,6,8,10,12,14,-1,-1,-1,-1,-1,-1,-1,-1],"split_conditions":[1.5E1,7E0,2.6E1,3E0,1.1E1,2E1,3.5E1,-1.04767576E-1,-6.921322E-2,-3.1923283E-2,5.873541E-3,4.7301438E-2,9.895665E-2,1.6516556E-1,2.657221E-1],"split_indices":[2,2,2,2,2,2,2,0,0,0,0,0,0,0,0],"split_type":[0,0,0,0,0,0,0,0,0,0,0,0,0,0,0],"sum_hessian":[4.8365E4,3.2373E4,1.5992E4,1.6451E4,1.5922E4,1.1705E4,4.287E3,7.526E3,8.925E3,8.581E3,7.341E3,6.63E3,5.075E3,3.33E3,9.57E2],"tree_param":{"num_deleted":"0","num_feature":"43","num_nodes":"15","size_leaf_vector":"1"}},{"base_weights":[2.5937425E-2,-4.985236E0,1.0061637E1,-8.450682E0,-1.4317348E0,6.571381E0,1.7744436E1,-1.0373354E-1,-6.847041E-2,-3.1427775E-2,5.7414854E-3,4.267831E-2,8.8987835E-2,1.5115824E-1,2.4402204E-1],"categories":[],"categories_nodes":[],"categories_segments":[],"categories_sizes":[],"default_left":[0,0,0,0,0,0,0,0,0,0,0,0,0,0,0],"id":6,"left_children":[1,3,5,7,9,11,13,-1,-1,-1,-1,-1,-1,-1,-1],"loss_changes":[2.4366315E6,3.9792988E5,4.3256938E5,5.0371375E4,5.476522E4,5.945622E4,8.7834625E4,0E0,0E0,0E0,0E0,0E0,0E0,0E0,0E0],"parents":[2147483647,0,0,1,1,2,2,3,3,4,4,5,5,6,6],"right_children":[2,4,6,8,10,12,14,-1,-1,-1,-1,-1,-1,-1,-1],"split_conditions":[1.5E1,7E0,2.5E1,3E0,1.1E1,1.9E1,3.3E1,-1.0373354E-1,-6.847041E-2,-3.1427775E-2,5.7414854E-3,4.267831E-2,8.8987835E-2,1.5115824E-1,2.4402204E-1],"split_indices":[2,2,2,2,2,2,2,0,0,0,0,0,0,0,0],"split_type":[0,0,0,0,0,0,0,0,0,0,0,0,0,0,0],"sum_hessian":[4.8449E4,3.2314E4,1.6135E4,1.6359E4,1.5955E4,1.1096E4,5.039E3,7.437E3,8.922E3,8.61E3,7.345E3,5.578E3,5.518E3,3.615E3,1.424E3],"tree_param":{"num_deleted":"0","num_feature":"43","num_nodes":"15","size_leaf_vector":"1"}},{"base_weights":[1.2865921E-2,-4.9517593E0,9.94181E0,-8.37463E0,-1.4295079E0,6.4803376E0,1.758498E1,-9.844404E-2,-6.32562E-2,-3.1204263E-2,5.5516767E-3,4.226317E-2,8.779759E-2,1.4978443E-1,2.4154565E-1],"categories":[],"categories_nodes":[],"categories_segments":[],"categories_sizes":[],"default_left":[0,0,0,0,0,0,0,0,0,0,0,0,0,0,0],"id":7,"left_children":[1,3,5,7,9,11,13,-1,-1,-1,-1,-1,-1,-1,-1],"loss_changes":[2.3945788E6,3.9042844E5,4.2829812E5,4.94E4,5.3568996E4,5.7737188E4,8.606225E4,0E0,0E0,0E0,0E0,0E0,0E0,0E0,0E0],"parents":[2147483647,0,0,1,1,2,2,3,3,4,4,5,5,6,6],"right_children":[2,4,6,8,10,12,14,-1,-1,-1,-1,-1,-1,-1,-1],"split_conditions":[1.5E1,7E0,2.5E1,4E0,1.1E1,1.9E1,3.3E1,-9.844404E-2,-6.32562E-2,-3.1204263E-2,5.5516767E-3,4.226317E-2,8.779759E-2,1.4978443E-1,2.4154565E-1],"split_indices":[2,2,2,2,2,2,2,0,0,0,0,0,0,0,0],"split_type":[0,0,0,0,0,0,0,0,0,0,0,0,0,0,0],"sum_hessian":[4.8576E4,3.2384E4,1.6192E4,1.6423E4,1.5961E4,1.1146E4,5.046E3,9.561E3,6.862E3,8.618E3,7.343E3,5.63E3,5.516E3,3.615E3,1.431E3],"tree_param":{"num_deleted":"0","num_feature":"43","num_nodes":"15","size_leaf_vector":"1"}},{"base_weights":[-3.9239224E-2,-4.9067607E0,9.83233E0,-8.292011E0,-1.4213338E0,6.732341E0,1.8225174E1,-1.01771645E-1,-6.7105725E-2,-3.0981623E-2,5.6002703E-3,4.58285E-2,9.596418E-2,1.6299555E-1,2.672042E-1],"categories":[],"categories_nodes":[],"categories_segments":[],"categories_sizes":[],"default_left":[0,0,0,0,0,0,0,0,0,0,0,0,0,0,0],"id":8,"left_children":[1,3,5,7,9,11,13,-1,-1,-1,-1,-1,-1,-1,-1],"loss_changes":[2.3343688E6,3.839055E5,4.1730562E5,4.9140375E4,5.3269812E4,7.2095625E4,7.0348125E4,0E0,0E0,0E0,0E0,0E0,0E0,0E0,0E0],"parents":[2147483647,0,0,1,1,2,2,3,3,4,4,5,5,6,6],"right_children":[2,4,6,8,10,12,14,-1,-1,-1,-1,-1,-1,-1,-1],"split_conditions":[1.5E1,7E0,2.6E1,3E0,1.1E1,2E1,3.6E1,-1.01771645E-1,-6.7105725E-2,-3.0981623E-2,5.6002703E-3,4.58285E-2,9.596418E-2,1.6299555E-1,2.672042E-1],"split_indices":[2,2,2,2,2,2,2,0,0,0,0,0,0,0,0],"split_type":[0,0,0,0,0,0,0,0,0,0,0,0,0,0,0],"sum_hessian":[4.858E4,3.2537E4,1.6043E4,1.6505E4,1.6032E4,1.1717E4,4.326E3,7.527E3,8.978E3,8.683E3,7.349E3,6.695E3,5.022E3,3.529E3,7.97E2],"tree_param":{"num_deleted":"0","num_feature":"43","num_nodes":"15","size_leaf_vector":"1"}},{"base_weights":[-8.360946E-3,-3.9674053E0,8.065461E0,-8.313374E0,-1.7776779E0,3.5875275E0,1.33829E1,-1.0575443E-1,-6.377274E-2,-4.5356918E-2,4.0992275E-3,-3.9636083E-3,5.8788966E-2,1.03249386E-1,1.7600435E-1],"categories":[],"categories_nodes":[],"categories_segments":[],"categories_sizes":[],"default_left":[0,0,0,0,0,0,0,0,0,0,0,0,0,0,0],"id":9,"left_children":[1,3,5,7,9,11,13,-1,-1,-1,-1,-1,-1,-1,-1],"loss_changes":[1.5510194E6,3.0982297E5,3.800968E5,4.7705125E4,1.3063173E5,7.912867E4,9.3941E4,0E0,0E0,0E0,0E0,0E0,0E0,0E0,0E0],"parents":[2147483647,0,0,1,1,2,2,3,3,4,4,5,5,6,6],"right_children":[2,4,6,8,10,12,14,-1,-1,-1,-1,-1,-1,-1,-1],"split_conditions":[1.42E1,3.3333328E-1,5.4571426E-1,5.6E-2,2.2E1,3.4E-1,2.32E1,-1.0575443E-1,-6.377274E-2,-4.5356918E-2,4.0992275E-3,-3.9636083E-3,5.8788966E-2,1.03249386E-1,1.7600435E-1],"split_indices":[18,39,37,9,8,37,18,0,0,0,0,0,0,0,0],"split_type":[0,0,0,0,0,0,0,0,0,0,0,0,0,0,0],"sum_hessian":[4.8521E4,3.2557E4,1.5964E4,1.0907E4,2.165E4,8.667E3,7.297E3,5.028E3,5.879E3,9.576E3,1.2074E4,3.165E3,5.502E3,4.232E3,3.065E3],"tree_param":{"num_deleted":"0","num_feature":"43","num_nodes":"15","size_leaf_vector":"1"}},{"base_weights":[-5.58516E-3,-4.8110085E0,9.644609E0,-8.142156E0,-1.3888243E0,6.3201847E0,1.7037529E1,-9.5826246E-2,-6.1539844E-2,-3.0422356E-2,5.4824976E-3,4.1021667E-2,8.551867E-2,1.452666E-1,2.3439111E-1],"categories":[],"categories_nodes":[],"categories_segments":[],"categories_sizes":[],"default_left":[0,0,0,0,0,0,0,0,0,0,0,0,0,0,0],"id":10,"left_children":[1,3,5,7,9,11,13,-1,-1,-1,-1,-1,-1,-1,-1],"loss_changes":[2.2488718E6,3.6904575E5,3.961015E5,4.692325E4,5.1150066E4,5.5017875E4,8.0027125E4,0E0,0E0,0E0,0E0,0E0,0E0,0E0,0E0],"parents":[2147483647,0,0,1,1,2,2,3,3,4,4,5,5,6,6],"right_children":[2,4,6,8,10,12,14,-1,-1,-1,-1,-1,-1,-1,-1],"split_conditions":[1.5E1,7E0,2.5E1,4E0,1.1E1,1.9E1,3.3E1,-9.5826246E-2,-6.1539844E-2,-3.0422356E-2,5.4824976E-3,4.1021667E-2,8.551867E-2,1.452666E-1,2.3439111E-1],"split_indices":[2,2,2,2,2,2,2,0,0,0,0,0,0,0,0],"split_type":[0,0,0,0,0,0,0,0,0,0,0,0,0,0,0],"sum_hessian":[4.8493E4,3.2373E4,1.612E4,1.6404E4,1.5969E4,1.1121E4,4.999E3,9.51E3,6.894E3,8.615E3,7.354E3,5.579E3,5.542E3,3.593E3,1.406E3],"tree_param":{"num_deleted":"0","num_feature":"43","num_nodes":"15","size_leaf_vector":"1"}},{"base_weights":[-1.4807029E-2,-4.769074E0,9.559582E0,-8.055311E0,-1.3633269E0,6.572381E0,1.7764643E1,-9.476673E-2,-6.0960434E-2,-3.003898E-2,5.50523E-3,4.468763E-2,9.3282096E-2,1.580863E-1,2.6079297E-1],"categories":[],"categories_nodes":[],"categories_segments":[],"categories_sizes":[],"default_left":[0,0,0,0,0,0,0,0,0,0,0,0,0,0,0],"id":11,"left_children":[1,3,5,7,9,11,13,-1,-1,-1,-1,-1,-1,-1,-1],"loss_changes":[2.198714E6,3.61225E5,3.9270788E5,4.568575E4,4.9770734E4,6.8081375E4,6.9146875E4,0E0,0E0,0E0,0E0,0E0,0E0,0E0,0E0],"parents":[2147483647,0,0,1,1,2,2,3,3,4,4,5,5,6,6],"right_children":[2,4,6,8,10,12,14,-1,-1,-1,-1,-1,-1,-1,-1],"split_conditions":[1.5E1,7E0,2.6E1,4E0,1.1E1,2E1,3.6E1,-9.476673E-2,-6.0960434E-2,-3.003898E-2,5.50523E-3,4.468763E-2,9.3282096E-2,1.580863E-1,2.6079297E-1],"split_indices":[2,2,2,2,2,2,2,0,0,0,0,0,0,0,0],"split_type":[0,0,0,0,0,0,0,0,0,0,0,0,0,0,0],"sum_hessian":[4.8301E4,3.2275E4,1.6026E4,1.6425E4,1.585E4,1.175E4,4.276E3,9.517E3,6.908E3,8.534E3,7.316E3,6.665E3,5.085E3,3.464E3,8.12E2],"tree_param":{"num_deleted":"0","num_feature":"43","num_nodes":"15","size_leaf_vector":"1"}},{"base_weights":[2.6423398E-2,-4.7085395E0,9.471837E0,-7.9688096E0,-1.3550165E0,6.49265E0,1.7543581E1,-9.78175E-2,-6.4567305E-2,-2.9739147E-2,5.432856E-3,4.4207133E-2,9.2385106E-2,1.51185E-1,2.3886865E-1],"categories":[],"categories_nodes":[],"categories_segments":[],"categories_sizes":[],"default_left":[0,0,0,0,0,0,0,0,0,0,0,0,0,0,0],"id":12,"left_children":[1,3,5,7,9,11,13,-1,-1,-1,-1,-1,-1,-1,-1],"loss_changes":[2.1734368E6,3.5390306E5,3.9010062E5,4.493E4,4.904308E4,6.739953E4,6.6924E4,0E0,0E0,0E0,0E0,0E0,0E0,0E0,0E0],"parents":[2147483647,0,0,1,1,2,2,3,3,4,4,5,5,6,6],"right_children":[2,4,6,8,10,12,14,-1,-1,-1,-1,-1,-1,-1,-1],"split_conditions":[1.5E1,7E0,2.6E1,3E0,1.1E1,2E1,3.4E1,-9.78175E-2,-6.4567305E-2,-2.9739147E-2,5.432856E-3,4.4207133E-2,9.2385106E-2,1.51185E-1,2.3886865E-1],"split_indices":[2,2,2,2,2,2,2,0,0,0,0,0,0,0,0],"split_type":[0,0,0,0,0,0,0,0,0,0,0,0,0,0,0],"sum_hessian":[4.8595E4,3.2369E4,1.6226E4,1.6412E4,1.5957E4,1.1853E4,4.373E3,7.461E3,8.951E3,8.612E3,7.345E3,6.757E3,5.096E3,3.166E3,1.207E3],"tree_param":{"num_deleted":"0","num_feature":"43","num_nodes":"15","size_leaf_vector":"1"}},{"base_weights":[-3.293526E-2,-4.5809393E0,9.142944E0,-7.8974795E0,-1.4124361E0,6.2180696E0,1.670053E1,-1.01780556E-1,-6.80492E-2,-2.8981628E-2,5.882985E-3,4.0750843E-2,8.691673E-2,1.421197E-1,2.2251338E-1],"categories":[],"categories_nodes":[],"categories_segments":[],"categories_sizes":[],"default_left":[0,0,0,0,0,0,0,0,0,0,0,0,0,0,0],"id":13,"left_children":[1,3,5,7,9,11,13,-1,-1,-1,-1,-1,-1,-1,-1],"loss_changes":[2.022163E6,3.4044225E5,3.54858E5,3.9371312E4,4.9256773E4,6.1343656E4,6.156825E4,0E0,0E0,0E0,0E0,0E0,0E0,0E0,0E0],"parents":[2147483647,0,0,1,1,2,2,3,3,4,4,5,5,6,6],"right_children":[2,4,6,8,10,12,14,-1,-1,-1,-1,-1,-1,-1,-1],"split_conditions":[4.25E2,1.26E2,8.84E2,5.6E-2,2.73E2,6.16E2,1.209E3,-1.01780556E-1,-6.80492E-2,-2.8981628E-2,5.882985E-3,4.0750843E-2,8.691673E-2,1.421197E-1,2.2251338E-1],"split_indices":[38,38,38,9,38,38,38,0,0,0,0,0,0,0,0],"split_type":[0,0,0,0,0,0,0,0,0,0,0,0,0,0,0],"sum_hessian":[4.8454E4,3.2397E4,1.6057E4,1.5828E4,1.6569E4,1.1578E4,4.479E3,5.124E3,1.0704E4,9.508E3,7.061E3,6.205E3,5.373E3,3.095E3,1.384E3],"tree_param":{"num_deleted":"0","num_feature":"43","num_nodes":"15","size_leaf_vector":"1"}},{"base_weights":[2.4872446E-3,-4.2853284E0,1.0042122E1,-7.4291377E0,-5.073016E-1,7.2476816E0,1.8005915E1,-9.203541E-2,-5.550436E-2,-2.0905284E-2,1.3969519E-2,5.223622E-2,9.9244386E-2,1.6215031E-1,2.6081693E-1],"categories":[],"categories_nodes":[],"categories_segments":[],"categories_sizes":[],"default_left":[0,0,0,0,0,0,0,0,0,0,0,0,0,0,0],"id":14,"left_children":[1,3,5,7,9,11,13,-1,-1,-1,-1,-1,-1,-1,-1],"loss_changes":[2.1013932E6,4.0627444E5,3.2498312E5,6.2186812E4,4.6844887E4,5.854825E4,5.4449E4,0E0,0E0,0E0,0E0,0E0,0E0,0E0,0E0],"parents":[2147483647,0,0,1,1,2,2,3,3,4,4,5,5,6,6],"right_children":[2,4,6,8,10,12,14,-1,-1,-1,-1,-1,-1,-1,-1],"split_conditions":[1.6E1,8E0,2.7E1,4E0,1.2E1,2.1E1,3.7E1,-9.203541E-2,-5.550436E-2,-2.0905284E-2,1.3969519E-2,5.223622E-2,9.9244386E-2,1.6215031E-1,2.6081693E-1],"split_indices":[2,2,2,2,2,2,2,0,0,0,0,0,0,0,0],"split_type":[0,0,0,0,0,0,0,0,0,0,0,0,0,0,0],"sum_hessian":[4.8813E4,3.4205E4,1.4608E4,1.8669E4,1.5536E4,1.0815E4,3.793E3,9.599E3,9.07E3,8.483E3,7.053E3,6.16E3,4.655E3,3.107E3,6.86E2],"tree_param":{"num_deleted":"0","num_feature":"43","num_nodes":"15","size_leaf_vector":"1"}},{"base_weights":[-1.0098583E-2,-4.582966E0,9.206763E0,-7.3660107E0,-8.529447E-1,6.016178E0,1.6273481E1,-9.110459E-2,-5.502539E-2,-2.0583922E-2,1.0209943E-2,3.9009307E-2,8.136457E-2,1.3851094E-1,2.241136E-1],"categories":[],"categories_nodes":[],"categories_segments":[],"categories_sizes":[],"default_left":[0,0,0,0,0,0,0,0,0,0,0,0,0,0,0],"id":15,"left_children":[1,3,5,7,9,11,13,-1,-1,-1,-1,-1,-1,-1,-1],"loss_changes":[2.0428462E6,3.3629056E5,3.622995E5,6.0260688E4,3.1274805E4,4.963872E4,7.401625E4,0E0,0E0,0E0,0E0,0E0,0E0,0E0,0E0],"parents":[2147483647,0,0,1,1,2,2,3,3,4,4,5,5,6,6],"right_children":[2,4,6,8,10,12,14,-1,-1,-1,-1,-1,-1,-1,-1],"split_conditions":[1.5E1,8E0,2.5E1,4E0,1.2E1,1.9E1,3.3E1,-9.110459E-2,-5.502539E-2,-2.0583922E-2,1.0209943E-2,3.9009307E-2,8.136457E-2,1.3851094E-1,2.241136E-1],"split_indices":[2,2,2,2,2,2,2,0,0,0,0,0,0,0,0],"split_type":[0,0,0,0,0,0,0,0,0,0,0,0,0,0,0],"sum_hessian":[4.8467E4,3.2395E4,1.6072E4,1.8552E4,1.3843E4,1.1074E4,4.998E3,9.58E3,8.972E3,8.424E3,5.419E3,5.545E3,5.529E3,3.586E3,1.412E3],"tree_param":{"num_deleted":"0","num_feature":"43","num_nodes":"15","size_leaf_vector":"1"}},{"base_weights":[1.0228312E-2,-4.197443E0,9.82553E0,-7.27451E0,-4.9643964E-1,7.1182323E0,1.7626131E1,-9.020118E-2,-5.4409917E-2,-2.044093E-2,1.3601977E-2,5.129265E-2,9.736727E-2,1.5922508E-1,2.5679663E-1],"categories":[],"categories_nodes":[],"categories_segments":[],"categories_sizes":[],"default_left":[0,0,0,0,0,0,0,0,0,0,0,0,0,0,0],"id":16,"left_children":[1,3,5,7,9,11,13,-1,-1,-1,-1,-1,-1,-1,-1],"loss_changes":[2.0063741E6,3.8724194E5,3.077195E5,5.9376438E4,4.436281E4,5.6317375E4,5.1110375E4,0E0,0E0,0E0,0E0,0E0,0E0,0E0,0E0],"parents":[2147483647,0,0,1,1,2,2,3,3,4,4,5,5,6,6],"right_children":[2,4,6,8,10,12,14,-1,-1,-1,-1,-1,-1,-1,-1],"split_conditions":[1.6E1,8E0,2.7E1,4E0,1.2E1,2.1E1,3.7E1,-9.020118E-2,-5.4409917E-2,-2.044093E-2,1.3601977E-2,5.129265E-2,9.736727E-2,1.5922508E-1,2.5679663E-1],"split_indices":[2,2,2,2,2,2,2,0,0,0,0,0,0,0,0],"split_type":[0,0,0,0,0,0,0,0,0,0,0,0,0,0,0],"sum_hessian":[4.8579E4,3.4003E4,1.4576E4,1.8566E4,1.5437E4,1.0822E4,3.754E3,9.509E3,9.057E3,8.419E3,7.018E3,6.152E3,4.67E3,3.101E3,6.53E2],"tree_param":{"num_deleted":"0","num_feature":"43","num_nodes":"15","size_leaf_vector":"1"}},{"base_weights":[-3.0462176E-3,-4.8674955E0,8.302323E0,-8.089627E0,-2.1696045E0,5.0303874E0,1.5234576E1,-1.0058255E-1,-7.14686E-2,-3.724037E-2,-3.395475E-3,2.9855091E-2,7.143818E-2,1.2741068E-1,2.1229193E-1],"categories":[],"categories_nodes":[],"categories_segments":[],"categories_sizes":[],"default_left":[0,0,0,0,0,0,0,0,0,0,0,0,0,0,0],"id":17,"left_children":[1,3,5,7,9,11,13,-1,-1,-1,-1,-1,-1,-1,-1],"loss_changes":[1.958562E6,2.6574362E5,4.0606512E5,2.5785312E4,4.733739E4,5.2556594E4,8.554375E4,0E0,0E0,0E0,0E0,0E0,0E0,0E0,0E0],"parents":[2147483647,0,0,1,1,2,2,3,3,4,4,5,5,6,6],"right_children":[2,4,6,8,10,12,14,-1,-1,-1,-1,-1,-1,-1,-1],"split_conditions":[1.4E1,6E0,2.4E1,2E0,1E1,1.8E1,3.2E1,-1.0058255E-1,-7.14686E-2,-3.724037E-2,-3.395475E-3,2.9855091E-2,7.143818E-2,1.2741068E-1,2.1229193E-1],"split_indices":[2,2,2,2,2,2,2,0,0,0,0,0,0,0,0],"split_type":[0,0,0,0,0,0,0,0,0,0,0,0,0,0,0],"sum_hessian":[4.8476E4,3.0571E4,1.7905E4,1.3931E4,1.664E4,1.2165E4,5.74E3,4.508E3,9.423E3,8.997E3,7.643E3,6.184E3,5.981E3,4.056E3,1.684E3],"tree_param":{"num_deleted":"0","num_feature":"43","num_nodes":"15","size_leaf_vector":"1"}},{"base_weights":[-7.6196473E-3,-4.4455166E0,8.91771E0,-7.521204E0,-1.2702972E0,6.131626E0,1.6525488E1,-9.241885E-2,-6.0814146E-2,-2.8104426E-2,5.222569E-3,4.1448608E-2,8.691123E-2,1.4509702E-1,2.3321977E-1],"categories":[],"categories_nodes":[],"categories_segments":[],"categories_sizes":[],"default_left":[0,0,0,0,0,0,0,0,0,0,0,0,0,0,0],"id":18,"left_children":[1,3,5,7,9,11,13,-1,-1,-1,-1,-1,-1,-1,-1],"loss_changes":[1.9233675E6,3.1672088E5,3.4170388E5,4.0756688E4,4.4060984E4,5.9993812E4,5.887425E4,0E0,0E0,0E0,0E0,0E0,0E0,0E0,0E0],"parents":[2147483647,0,0,1,1,2,2,3,3,4,4,5,5,6,6],"right_children":[2,4,6,8,10,12,14,-1,-1,-1,-1,-1,-1,-1,-1],"split_conditions":[1.5E1,7E0,2.6E1,3E0,1.1E1,2E1,3.5E1,-9.241885E-2,-6.0814146E-2,-2.8104426E-2,5.222569E-3,4.1448608E-2,8.691123E-2,1.4509702E-1,2.3321977E-1],"split_indices":[2,2,2,2,2,2,2,0,0,0,0,0,0,0,0],"split_type":[0,0,0,0,0,0,0,0,0,0,0,0,0,0,0],"sum_hessian":[4.8556E4,3.2431E4,1.6125E4,1.6473E4,1.5958E4,1.1804E4,4.321E3,7.502E3,8.971E3,8.583E3,7.375E3,6.647E3,5.157E3,3.335E3,9.86E2],"tree_param":{"num_deleted":"0","num_feature":"43","num_nodes":"15","size_leaf_vector":"1"}},{"base_weights":[-4.9438756E-3,-4.1013727E0,9.52813E0,-7.078848E0,-4.9483466E-1,6.867722E0,1.7129889E1,-8.763456E-2,-5.276535E-2,-1.9862473E-2,1.3175128E-2,4.961343E-2,9.450281E-2,1.5434511E-1,2.4871352E-1],"categories":[],"categories_nodes":[],"categories_segments":[],"categories_sizes":[],"default_left":[0,0,0,0,0,0,0,0,0,0,0,0,0,0,0],"id":19,"left_children":[1,3,5,7,9,11,13,-1,-1,-1,-1,-1,-1,-1,-1],"loss_changes":[1.8963438E6,3.6472544E5,2.9504825E5,5.6442125E4,4.1522758E4,5.3189156E4,4.9266875E4,0E0,0E0,0E0,0E0,0E0,0E0,0E0,0E0],"parents":[2147483647,0,0,1,1,2,2,3,3,4,4,5,5,6,6],"right_children":[2,4,6,8,10,12,14,-1,-1,-1,-1,-1,-1,-1,-1],"split_conditions":[1.6E1,8E0,2.7E1,4E0,1.2E1,2.1E1,3.7E1,-8.763456E-2,-5.276535E-2,-1.9862473E-2,1.3175128E-2,4.961343E-2,9.450281E-2,1.5434511E-1,2.4871352E-1],"split_indices":[2,2,2,2,2,2,2,0,0,0,0,0,0,0,0],"split_type":[0,0,0,0,0,0,0,0,0,0,0,0,0,0,0],"sum_hessian":[4.8558E4,3.3964E4,1.4594E4,1.8604E4,1.536E4,1.0812E4,3.782E3,9.614E3,8.99E3,8.426E3,6.934E3,6.222E3,4.59E3,3.105E3,6.77E2],"tree_param":{"num_deleted":"0","num_feature":"43","num_nodes":"15","size_leaf_vector":"1"}},{"base_weights":[-3.2348484E-3,-4.0438185E0,9.454398E0,-7.0034347E0,-4.943929E-1,6.822188E0,1.696949E1,-8.673226E-2,-5.2251168E-2,-1.9659039E-2,1.3096576E-2,4.909034E-2,9.373101E-2,1.5302898E-1,2.4684834E-1],"categories":[],"categories_nodes":[],"categories_segments":[],"categories_sizes":[],"default_left":[0,0,0,0,0,0,0,0,0,0,0,0,0,0,0],"id":20,"left_children":[1,3,5,7,9,11,13,-1,-1,-1,-1,-1,-1,-1,-1],"loss_changes":[1.8527468E6,3.568493E5,2.8697025E5,5.4960188E4,4.1009418E4,5.2417125E4,4.8021E4,0E0,0E0,0E0,0E0,0E0,0E0,0E0,0E0],"parents":[2147483647,0,0,1,1,2,2,3,3,4,4,5,5,6,6],"right_children":[2,4,6,8,10,12,14,-1,-1,-1,-1,-1,-1,-1,-1],"split_conditions":[1.6E1,8E0,2.7E1,4E0,1.2E1,2.1E1,3.7E1,-8.673226E-2,-5.2251168E-2,-1.9659039E-2,1.3096576E-2,4.909034E-2,9.373101E-2,1.5302898E-1,2.4684834E-1],"split_indices":[2,2,2,2,2,2,2,0,0,0,0,0,0,0,0],"split_type":[0,0,0,0,0,0,0,0,0,0,0,0,0,0,0],"sum_hessian":[4.8481E4,3.3969E4,1.4512E4,1.8523E4,1.5446E4,1.0749E4,3.763E3,9.551E3,8.972E3,8.507E3,6.939E3,6.144E3,4.605E3,3.097E3,6.66E2],"tree_param":{"num_deleted":"0","num_feature":"43","num_nodes":"15","size_leaf_vector":"1"}},{"base_weights":[1.8543383E-2,-4.6776342E0,8.007936E0,-7.7828894E0,-2.0719848E0,4.8334994E0,1.4703243E1,-9.689299E-2,-6.8580285E-2,-3.5724E-2,-3.2576292E-3,2.870776E-2,6.8520285E-2,1.2269945E-1,2.058233E-1],"categories":[],"categories_nodes":[],"categories_segments":[],"categories_sizes":[],"default_left":[0,0,0,0,0,0,0,0,0,0,0,0,0,0,0],"id":21,"left_children":[1,3,5,7,9,11,13,-1,-1,-1,-1,-1,-1,-1,-1],"loss_changes":[1.8177124E6,2.4686269E5,3.8111638E5,2.4478562E4,4.3470836E4,4.8187688E4,8.2262E4,0E0,0E0,0E0,0E0,0E0,0E0,0E0,0E0],"parents":[2147483647,0,0,1,1,2,2,3,3,4,4,5,5,6,6],"right_children":[2,4,6,8,10,12,14,-1,-1,-1,-1,-1,-1,-1,-1],"split_conditions":[1.4E1,6E0,2.4E1,2E0,1E1,1.8E1,3.2E1,-9.689299E-2,-6.8580285E-2,-3.5724E-2,-3.2576292E-3,2.870776E-2,6.8520285E-2,1.2269945E-1,2.058233E-1],"split_indices":[2,2,2,2,2,2,2,0,0,0,0,0,0,0,0],"split_type":[0,0,0,0,0,0,0,0,0,0,0,0,0,0,0],"sum_hessian":[4.8445E4,3.0511E4,1.7934E4,1.392E4,1.6591E4,1.2167E4,5.767E3,4.544E3,9.376E3,8.923E3,7.668E3,6.17E3,5.997E3,4.081E3,1.686E3],"tree_param":{"num_deleted":"0","num_feature":"43","num_nodes":"15","size_leaf_vector":"1"}},{"base_weights":[9.552251E-3,-4.62063E0,7.9044657E0,-7.709802E0,-2.0460408E0,4.7906213E0,1.44781475E1,-9.592226E-2,-6.804326E-2,-3.538014E-2,-3.273765E-3,2.8469712E-2,6.798386E-2,1.21094376E-1,2.0333044E-1],"categories":[],"categories_nodes":[],"categories_segments":[],"categories_sizes":[],"default_left":[0,0,0,0,0,0,0,0,0,0,0,0,0,0,0],"id":22,"left_children":[1,3,5,7,9,11,13,-1,-1,-1,-1,-1,-1,-1,-1],"loss_changes":[1.7650892E6,2.4205238E5,3.6530988E5,2.3516312E4,4.256971E4,4.725422E4,7.9317625E4,0E0,0E0,0E0,0E0,0E0,0E0,0E0,0E0],"parents":[2147483647,0,0,1,1,2,2,3,3,4,4,5,5,6,6],"right_children":[2,4,6,8,10,12,14,-1,-1,-1,-1,-1,-1,-1,-1],"split_conditions":[1.4E1,6E0,2.4E1,2E0,1E1,1.8E1,3.2E1,-9.592226E-2,-6.804326E-2,-3.538014E-2,-3.273765E-3,2.8469712E-2,6.798386E-2,1.21094376E-1,2.0333044E-1],"split_indices":[2,2,2,2,2,2,2,0,0,0,0,0,0,0,0],"split_type":[0,0,0,0,0,0,0,0,0,0,0,0,0,0,0],"sum_hessian":[4.8284E4,3.0435E4,1.7849E4,1.3834E4,1.6601E4,1.2113E4,5.736E3,4.49E3,9.344E3,8.886E3,7.715E3,6.156E3,5.957E3,4.086E3,1.65E3],"tree_param":{"num_deleted":"0","num_feature":"43","num_nodes":"15","size_leaf_vector":"1"}},{"base_weights":[-8.619848E-3,-4.581477E0,7.7957306E0,-7.626827E0,-2.0432587E0,4.7337875E0,1.4418456E1,-9.4964676E-2,-6.7265026E-2,-3.510946E-2,-3.1598425E-3,2.813574E-2,6.7192964E-2,1.2024891E-1,2.0104928E-1],"categories":[],"categories_nodes":[],"categories_segments":[],"categories_sizes":[],"default_left":[0,0,0,0,0,0,0,0,0,0,0,0,0,0,0],"id":23,"left_children":[1,3,5,7,9,11,13,-1,-1,-1,-1,-1,-1,-1,-1],"loss_changes":[1.7282001E6,2.36005E5,3.6273275E5,2.3300062E4,4.222097E4,4.6632094E4,7.674175E4,0E0,0E0,0E0,0E0,0E0,0E0,0E0,0E0],"parents":[2147483647,0,0,1,1,2,2,3,3,4,4,5,5,6,6],"right_children":[2,4,6,8,10,12,14,-1,-1,-1,-1,-1,-1,-1,-1],"split_conditions":[1.4E1,6E0,2.4E1,2E0,1E1,1.8E1,3.2E1,-9.4964676E-2,-6.7265026E-2,-3.510946E-2,-3.1598425E-3,2.813574E-2,6.7192964E-2,1.2024891E-1,2.0104928E-1],"split_indices":[2,2,2,2,2,2,2,0,0,0,0,0,0,0,0],"split_type":[0,0,0,0,0,0,0,0,0,0,0,0,0,0,0],"sum_hessian":[4.8423E4,3.0533E4,1.789E4,1.3879E4,1.6654E4,1.2235E4,5.655E3,4.508E3,9.371E3,9.003E3,7.651E3,6.221E3,6.014E3,3.982E3,1.673E3],"tree_param":{"num_deleted":"0","num_feature":"43","num_nodes":"15","size_leaf_vector":"1"}},{"base_weights":[-1.3127094E-2,-4.54202E0,7.724897E0,-7.5516543E0,-2.0172713E0,4.6811805E0,1.4227144E1,-9.40245E-2,-6.661231E-2,-3.4718588E-2,-3.1725413E-3,2.7740518E-2,6.646006E-2,1.18835054E-1,1.9928166E-1],"categories":[],"categories_nodes":[],"categories_segments":[],"categories_sizes":[],"default_left":[0,0,0,0,0,0,0,0,0,0,0,0,0,0,0],"id":24,"left_children":[1,3,5,7,9,11,13,-1,-1,-1,-1,-1,-1,-1,-1],"loss_changes":[1.7071666E6,2.3348119E5,3.558745E5,2.3039E4,4.1324727E4,4.5891938E4,7.6376E4,0E0,0E0,0E0,0E0,0E0,0E0,0E0,0E0],"parents":[2147483647,0,0,1,1,2,2,3,3,4,4,5,5,6,6],"right_children":[2,4,6,8,10,12,14,-1,-1,-1,-1,-1,-1,-1,-1],"split_conditions":[1.4E1,6E0,2.4E1,2E0,1E1,1.8E1,3.2E1,-9.40245E-2,-6.661231E-2,-3.4718588E-2,-3.1725413E-3,2.7740518E-2,6.646006E-2,1.18835054E-1,1.9928166E-1],"split_indices":[2,2,2,2,2,2,2,0,0,0,0,0,0,0,0],"split_type":[0,0,0,0,0,0,0,0,0,0,0,0,0,0,0],"sum_hessian":[4.8712E4,3.0728E4,1.7984E4,1.4017E4,1.6711E4,1.2251E4,5.733E3,4.55E3,9.467E3,9.005E3,7.706E3,6.218E3,6.033E3,4.065E3,1.668E3],"tree_param":{"num_deleted":"0","num_feature":"43","num_nodes":"15","size_leaf_vector":"1"}},{"base_weights":[-3.2083788E-3,-3.8184147E0,9.00574E0,-6.666081E0,-4.6471357E-1,6.714022E0,1.6865818E1,-8.2655236E-2,-4.9642604E-2,-1.8676663E-2,1.2513111E-2,4.9831428E-2,9.663893E-2,1.544073E-1,2.5594997E-1],"categories":[],"categories_nodes":[],"categories_segments":[],"categories_sizes":[],"default_left":[0,0,0,0,0,0,0,0,0,0,0,0,0,0,0],"id":25,"left_children":[1,3,5,7,9,11,13,-1,-1,-1,-1,-1,-1,-1,-1],"loss_changes":[1.6687462E6,3.257263E5,2.6006775E5,5.0165688E4,3.771103E4,5.7061E4,4.0158688E4,0E0,0E0,0E0,0E0,0E0,0E0,0E0,0E0],"parents":[2147483647,0,0,1,1,2,2,3,3,4,4,5,5,6,6],"right_children":[2,4,6,8,10,12,14,-1,-1,-1,-1,-1,-1,-1,-1],"split_conditions":[1.6E1,8E0,2.8E1,4E0,1.2E1,2.2E1,3.9E1,-8.2655236E-2,-4.9642604E-2,-1.8676663E-2,1.2513111E-2,4.9831428E-2,9.663893E-2,1.544073E-1,2.5594997E-1],"split_indices":[2,2,2,2,2,2,2,0,0,0,0,0,0,0,0],"split_type":[0,0,0,0,0,0,0,0,0,0,0,0,0,0,0],"sum_hessian":[4.8549E4,3.4106E4,1.4443E4,1.8444E4,1.5662E4,1.1184E4,3.259E3,9.506E3,8.938E3,8.617E3,7.045E3,7.05E3,4.134E3,2.804E3,4.55E2],"tree_param":{"num_deleted":"0","num_feature":"43","num_nodes":"15","size_leaf_vector":"1"}},{"base_weights":[-3.5773978E-2,-4.455227E0,7.56493E0,-7.4078083E0,-1.9794253E0,4.5897975E0,1.3962551E1,-9.2258796E-2,-6.525024E-2,-3.4013685E-2,-3.1195793E-3,2.7244769E-2,6.5166086E-2,1.1654062E-1,1.94895E-1],"categories":[],"categories_nodes":[],"categories_segments":[],"categories_sizes":[],"default_left":[0,0,0,0,0,0,0,0,0,0,0,0,0,0,0],"id":26,"left_children":[1,3,5,7,9,11,13,-1,-1,-1,-1,-1,-1,-1,-1],"loss_changes":[1.6223089E6,2.2322556E5,3.3791862E5,2.2293812E4,3.9386727E4,4.3550188E4,7.1682E4,0E0,0E0,0E0,0E0,0E0,0E0,0E0,0E0],"parents":[2147483647,0,0,1,1,2,2,3,3,4,4,5,5,6,6],"right_children":[2,4,6,8,10,12,14,-1,-1,-1,-1,-1,-1,-1,-1],"split_conditions":[1.4E1,6E0,2.4E1,2E0,1E1,1.8E1,3.2E1,-9.2258796E-2,-6.525024E-2,-3.4013685E-2,-3.1195793E-3,2.7244769E-2,6.5166086E-2,1.1654062E-1,1.94895E-1],"split_indices":[2,2,2,2,2,2,2,0,0,0,0,0,0,0,0],"split_type":[0,0,0,0,0,0,0,0,0,0,0,0,0,0,0],"sum_hessian":[4.8294E4,3.0538E4,1.7756E4,1.3927E4,1.6611E4,1.2121E4,5.635E3,4.549E3,9.378E3,8.965E3,7.646E3,6.16E3,5.961E3,3.977E3,1.658E3],"tree_param":{"num_deleted":"0","num_feature":"43","num_nodes":"15","size_leaf_vector":"1"}},{"base_weights":[-2.5004265E-3,-4.0635285E0,8.157364E0,-6.8876524E0,-1.1600735E0,5.8326483E0,1.5872859E1,-8.487838E-2,-5.556015E-2,-2.5620414E-2,4.7014225E-3,4.111217E-2,8.726281E-2,1.4438044E-1,2.4177864E-1],"categories":[],"categories_nodes":[],"categories_segments":[],"categories_sizes":[],"default_left":[0,0,0,0,0,0,0,0,0,0,0,0,0,0,0],"id":27,"left_children":[1,3,5,7,9,11,13,-1,-1,-1,-1,-1,-1,-1,-1],"loss_changes":[1.606702E6,2.6544962E5,2.8889762E5,3.49225E4,3.6487094E4,6.164622E4,4.4098062E4,0E0,0E0,0E0,0E0,0E0,0E0,0E0,0E0],"parents":[2147483647,0,0,1,1,2,2,3,3,4,4,5,5,6,6],"right_children":[2,4,6,8,10,12,14,-1,-1,-1,-1,-1,-1,-1,-1],"split_conditions":[1.5E1,7E0,2.7E1,3E0,1.1E1,2.1E1,3.8E1,-8.487838E-2,-5.556015E-2,-2.5620414E-2,4.7014225E-3,4.111217E-2,8.726281E-2,1.4438044E-1,2.4177864E-1],"split_indices":[2,2,2,2,2,2,2,0,0,0,0,0,0,0,0],"split_type":[0,0,0,0,0,0,0,0,0,0,0,0,0,0,0],"sum_hessian":[4.8484E4,3.2373E4,1.6111E4,1.641E4,1.5963E4,1.2382E4,3.729E3,7.451E3,8.959E3,8.582E3,7.381E3,7.765E3,4.617E3,3.182E3,5.47E2],"tree_param":{"num_deleted":"0","num_feature":"43","num_nodes":"15","size_leaf_vector":"1"}},{"base_weights":[1.8167164E-2,-3.7099452E0,8.706782E0,-6.467458E0,-4.226756E-1,6.506755E0,1.6470125E1,-8.028413E-2,-4.8162907E-2,-1.8077757E-2,1.2219951E-2,4.8372958E-2,9.365764E-2,1.5025763E-1,2.4928276E-1],"categories":[],"categories_nodes":[],"categories_segments":[],"categories_sizes":[],"default_left":[0,0,0,0,0,0,0,0,0,0,0,0,0,0,0],"id":28,"left_children":[1,3,5,7,9,11,13,-1,-1,-1,-1,-1,-1,-1,-1],"loss_changes":[1.573059E6,3.0803344E5,2.4893E5,4.7591688E4,3.5318566E4,5.419025E4,3.8950812E4,0E0,0E0,0E0,0E0,0E0,0E0,0E0,0E0],"parents":[2147483647,0,0,1,1,2,2,3,3,4,4,5,5,6,6],"right_children":[2,4,6,8,10,12,14,-1,-1,-1,-1,-1,-1,-1,-1],"split_conditions":[1.6E1,8E0,2.8E1,4E0,1.2E1,2.2E1,3.9E1,-8.028413E-2,-4.8162907E-2,-1.8077757E-2,1.2219951E-2,4.8372958E-2,9.365764E-2,1.5025763E-1,2.4928276E-1],"split_indices":[2,2,2,2,2,2,2,0,0,0,0,0,0,0,0],"split_type":[0,0,0,0,0,0,0,0,0,0,0,0,0,0,0],"sum_hessian":[4.8561E4,3.3981E4,1.458E4,1.8479E4,1.5502E4,1.1362E4,3.218E3,9.497E3,8.982E3,8.415E3,7.087E3,7.175E3,4.187E3,2.751E3,4.67E2],"tree_param":{"num_deleted":"0","num_feature":"43","num_nodes":"15","size_leaf_vector":"1"}},{"base_weights":[-2.1841139E-2,-3.6904397E0,8.617471E0,-6.4009943E0,-4.3539348E-1,6.446939E0,1.628048E1,-7.945648E-2,-4.777733E-2,-1.7868947E-2,1.191215E-2,4.786478E-2,9.2759185E-2,1.486813E-1,2.4675672E-1],"categories":[],"categories_nodes":[],"categories_segments":[],"categories_sizes":[],"default_left":[0,0,0,0,0,0,0,0,0,0,0,0,0,0,0],"id":29,"left_children":[1,3,5,7,9,11,13,-1,-1,-1,-1,-1,-1,-1,-1],"loss_changes":[1.5341564E6,2.9977562E5,2.39873E5,4.6446312E4,3.3942664E4,5.2777938E4,3.7385625E4,0E0,0E0,0E0,0E0,0E0,0E0,0E0,0E0],"parents":[2147483647,0,0,1,1,2,2,3,3,4,4,5,5,6,6],"right_children":[2,4,6,8,10,12,14,-1,-1,-1,-1,-1,-1,-1,-1],"split_conditions":[1.6E1,8E0,2.8E1,4E0,1.2E1,2.2E1,3.9E1,-7.945648E-2,-4.777733E-2,-1.7868947E-2,1.191215E-2,4.786478E-2,9.2759185E-2,1.486813E-1,2.4675672E-1],"split_indices":[2,2,2,2,2,2,2,0,0,0,0,0,0,0,0],"split_type":[0,0,0,0,0,0,0,0,0,0,0,0,0,0,0],"sum_hessian":[4.8403E4,3.3976E4,1.4427E4,1.8538E4,1.5438E4,1.1244E4,3.183E3,9.497E3,9.041E3,8.432E3,7.006E3,7.087E3,4.157E3,2.727E3,4.56E2],"tree_param":{"num_deleted":"0","num_feature":"43","num_nodes":"15","size_leaf_vector":"1"}},{"base_weights":[-1.2423344E-2,-4.2778273E0,7.2969027E0,-7.118518E0,-1.8907279E0,4.427835E0,1.3386693E1,-8.888205E-2,-6.26211E-2,-3.2673653E-2,-2.9143759E-3,2.941674E-2,6.693527E-2,1.08592145E-1,1.8043062E-1],"categories":[],"categories_nodes":[],"categories_segments":[],"categories_sizes":[],"default_left":[0,0,0,0,0,0,0,0,0,0,0,0,0,0,0],"id":30,"left_children":[1,3,5,7,9,11,13,-1,-1,-1,-1,-1,-1,-1,-1],"loss_changes":[1.5120332E6,2.0766175E5,3.1220062E5,2.1138125E4,3.6640984E4,4.0891594E4,6.715725E4,0E0,0E0,0E0,0E0,0E0,0E0,0E0,0E0],"parents":[2147483647,0,0,1,1,2,2,3,3,4,4,5,5,6,6],"right_children":[2,4,6,8,10,12,14,-1,-1,-1,-1,-1,-1,-1,-1],"split_conditions":[1.4E1,6E0,2.4E1,2E0,1E1,1.9E1,3.1E1,-8.888205E-2,-6.26211E-2,-3.2673653E-2,-2.9143759E-3,2.941674E-2,6.693527E-2,1.08592145E-1,1.8043062E-1],"split_indices":[2,2,2,2,2,2,2,0,0,0,0,0,0,0,0],"split_type":[0,0,0,0,0,0,0,0,0,0,0,0,0,0,0],"sum_hessian":[4.8496E4,3.0625E4,1.7871E4,1.3983E4,1.6642E4,1.2149E4,5.722E3,4.557E3,9.426E3,8.943E3,7.699E3,7.338E3,4.811E3,3.711E3,2.011E3],"tree_param":{"num_deleted":"0","num_feature":"43","num_nodes":"15","size_leaf_vector":"1"}},{"base_weights":[-1.5706804E-2,-3.6851106E0,7.8567986E0,-6.3770375E0,-7.641507E-1,5.5829983E0,1.4126974E1,-8.5702024E-2,-5.452328E-2,-2.6094748E-2,3.2582292E-3,4.0944193E-2,7.9994336E-2,1.24165684E-1,1.9330427E-1],"categories":[],"categories_nodes":[],"categories_segments":[],"categories_sizes":[],"default_left":[0,0,0,0,0,0,0,0,0,0,0,0,0,0,0],"id":31,"left_children":[1,3,5,7,9,11,13,-1,-1,-1,-1,-1,-1,-1,-1],"loss_changes":[1.3993924E6,2.5980475E5,2.1949506E5,3.4825375E4,3.1876797E4,4.0628375E4,3.623225E4,0E0,0E0,0E0,0E0,0E0,0E0,0E0,0E0],"parents":[2147483647,0,0,1,1,2,2,3,3,4,4,5,5,6,6],"right_children":[2,4,6,8,10,12,14,-1,-1,-1,-1,-1,-1,-1,-1],"split_conditions":[6E0,3E0,1E1,1E0,4E0,8E0,1.3E1,-8.5702024E-2,-5.452328E-2,-2.6094748E-2,3.2582292E-3,4.0944193E-2,7.9994336E-2,1.24165684E-1,1.9330427E-1],"split_indices":[15,15,15,15,15,15,15,0,0,0,0,0,0,0,0],"split_type":[0,0,0,0,0,0,0,0,0,0,0,0,0,0,0],"sum_hessian":[4.8441E4,3.3041E4,1.54E4,1.7194E4,1.5847E4,1.1303E4,4.097E3,5.097E3,1.2097E4,5.884E3,9.963E3,6.996E3,4.307E3,3.086E3,1.011E3],"tree_param":{"num_deleted":"0","num_feature":"43","num_nodes":"15","size_leaf_vector":"1"}},{"base_weights":[1.1460568E-2,-3.5882397E0,8.405506E0,-6.227823E0,-4.1696194E-1,6.285967E0,1.5744932E1,-7.717738E-2,-4.632911E-2,-1.7401235E-2,1.1631651E-2,4.6597116E-2,9.010514E-2,1.4275438E-1,2.3012866E-1],"categories":[],"categories_nodes":[],"categories_segments":[],"categories_sizes":[],"default_left":[0,0,0,0,0,0,0,0,0,0,0,0,0,0,0],"id":32,"left_children":[1,3,5,7,9,11,13,-1,-1,-1,-1,-1,-1,-1,-1],"loss_changes":[1.4712798E6,2.8525928E5,2.2723925E5,4.4158312E4,3.2369129E4,5.0207875E4,3.4638438E4,0E0,0E0,0E0,0E0,0E0,0E0,0E0,0E0],"parents":[2147483647,0,0,1,1,2,2,3,3,4,4,5,5,6,6],"right_children":[2,4,6,8,10,12,14,-1,-1,-1,-1,-1,-1,-1,-1],"split_conditions":[1.6E1,8E0,2.8E1,4E0,1.2E1,2.2E1,3.8E1,-7.717738E-2,-4.632911E-2,-1.7401235E-2,1.1631651E-2,4.6597116E-2,9.010514E-2,1.4275438E-1,2.3012866E-1],"split_indices":[2,2,2,2,2,2,2,0,0,0,0,0,0,0,0],"split_type":[0,0,0,0,0,0,0,0,0,0,0,0,0,0,0],"sum_hessian":[4.869E4,3.4077E4,1.4613E4,1.8597E4,1.548E4,1.134E4,3.273E3,9.613E3,8.984E3,8.425E3,7.055E3,7.103E3,4.237E3,2.725E3,5.48E2],"tree_param":{"num_deleted":"0","num_feature":"43","num_nodes":"15","size_leaf_vector":"1"}},{"base_weights":[9.497265E-3,-4.147449E0,7.059143E0,-6.9152427E0,-1.8362799E0,4.5663257E0,1.3630881E1,-8.6341366E-2,-6.0825348E-2,-3.168203E-2,-2.8400456E-3,2.8629448E-2,6.8280995E-2,1.1801754E-1,1.9670093E-1],"categories":[],"categories_nodes":[],"categories_segments":[],"categories_sizes":[],"default_left":[0,0,0,0,0,0,0,0,0,0,0,0,0,0,0],"id":33,"left_children":[1,3,5,7,9,11,13,-1,-1,-1,-1,-1,-1,-1,-1],"loss_changes":[1.4256002E6,1.9574338E5,2.9555356E5,1.9878875E4,3.448105E4,5.0388688E4,5.45805E4,0E0,0E0,0E0,0E0,0E0,0E0,0E0,0E0],"parents":[2147483647,0,0,1,1,2,2,3,3,4,4,5,5,6,6],"right_children":[2,4,6,8,10,12,14,-1,-1,-1,-1,-1,-1,-1,-1],"split_conditions":[1.4E1,6E0,2.5E1,2E0,1E1,1.9E1,3.4E1,-8.6341366E-2,-6.0825348E-2,-3.168203E-2,-2.8400456E-3,2.8629448E-2,6.8280995E-2,1.1801754E-1,1.9670093E-1],"split_indices":[2,2,2,2,2,2,2,0,0,0,0,0,0,0,0],"split_type":[0,0,0,0,0,0,0,0,0,0,0,0,0,0,0],"sum_hessian":[4.8645E4,3.0601E4,1.8044E4,1.3924E4,1.6677E4,1.3083E4,4.961E3,4.541E3,9.383E3,8.975E3,7.702E3,7.464E3,5.619E3,3.81E3,1.151E3],"tree_param":{"num_deleted":"0","num_feature":"43","num_nodes":"15","size_leaf_vector":"1"}},{"base_weights":[4.7543105E-3,-3.5094898E0,8.232561E0,-6.0925593E0,-4.1978785E-1,6.1337824E0,1.5463023E1,-7.57058E-2,-4.5427747E-2,-1.700436E-2,1.1362084E-2,4.5643806E-2,8.813918E-2,1.4143193E-1,2.3693728E-1],"categories":[],"categories_nodes":[],"categories_segments":[],"categories_sizes":[],"default_left":[0,0,0,0,0,0,0,0,0,0,0,0,0,0,0],"id":34,"left_children":[1,3,5,7,9,11,13,-1,-1,-1,-1,-1,-1,-1,-1],"loss_changes":[1.4032794E6,2.714045E5,2.2032412E5,4.2392312E4,3.086063E4,4.73175E4,3.5154688E4,0E0,0E0,0E0,0E0,0E0,0E0,0E0,0E0],"parents":[2147483647,0,0,1,1,2,2,3,3,4,4,5,5,6,6],"right_children":[2,4,6,8,10,12,14,-1,-1,-1,-1,-1,-1,-1,-1],"split_conditions":[1.6E1,8E0,2.8E1,4E0,1.2E1,2.2E1,3.9E1,-7.57058E-2,-4.5427747E-2,-1.700436E-2,1.1362084E-2,4.5643806E-2,8.813918E-2,1.4143193E-1,2.3693728E-1],"split_indices":[2,2,2,2,2,2,2,0,0,0,0,0,0,0,0],"split_type":[0,0,0,0,0,0,0,0,0,0,0,0,0,0,0],"sum_hessian":[4.853E4,3.4006E4,1.4524E4,1.8521E4,1.5485E4,1.1258E4,3.266E3,9.478E3,9.043E3,8.494E3,6.991E3,7.102E3,4.156E3,2.817E3,4.49E2],"tree_param":{"num_deleted":"0","num_feature":"43","num_nodes":"15","size_leaf_vector":"1"}},{"base_weights":[1.53980395E-2,-3.5208657E0,7.5633445E0,-6.112325E0,-7.2620165E-1,5.3612046E0,1.3583501E1,-8.240524E-2,-5.2169044E-2,-2.4990058E-2,3.0699058E-3,3.9198622E-2,7.659913E-2,1.1873079E-1,1.8751466E-1],"categories":[],"categories_nodes":[],"categories_segments":[],"categories_sizes":[],"default_left":[0,0,0,0,0,0,0,0,0,0,0,0,0,0,0],"id":35,"left_children":[1,3,5,7,9,11,13,-1,-1,-1,-1,-1,-1,-1,-1],"loss_changes":[1.293765E6,2.3904081E5,2.0493681E5,3.2592875E4,2.9090996E4,3.7488938E4,3.6381312E4,0E0,0E0,0E0,0E0,0E0,0E0,0E0,0E0],"parents":[2147483647,0,0,1,1,2,2,3,3,4,4,5,5,6,6],"right_children":[2,4,6,8,10,12,14,-1,-1,-1,-1,-1,-1,-1,-1],"split_conditions":[6E0,3E0,1E1,5.6E-2,4E0,8E0,1.3E1,-8.240524E-2,-5.2169044E-2,-2.4990058E-2,3.0699058E-3,3.9198622E-2,7.659913E-2,1.1873079E-1,1.8751466E-1],"split_indices":[15,15,15,9,15,15,15,0,0,0,0,0,0,0,0],"split_type":[0,0,0,0,0,0,0,0,0,0,0,0,0,0,0],"sum_hessian":[4.8469E4,3.3006E4,1.5463E4,1.7125E4,1.5881E4,1.1323E4,4.14E3,5.069E3,1.2056E4,5.847E3,1.0034E4,6.961E3,4.362E3,3.113E3,1.027E3],"tree_param":{"num_deleted":"0","num_feature":"43","num_nodes":"15","size_leaf_vector":"1"}},{"base_weights":[1.596009E-2,-3.4345217E0,7.7746735E0,-6.080879E0,-6.8441665E-1,5.5169115E0,1.3874707E1,-7.5333044E-2,-4.7548346E-2,-1.7505864E-2,1.2655365E-2,3.9217453E-2,7.687565E-2,1.2476729E-1,2.0613155E-1],"categories":[],"categories_nodes":[],"categories_segments":[],"categories_sizes":[],"default_left":[0,0,0,0,0,0,0,0,0,0,0,0,0,0,0],"id":36,"left_children":[1,3,5,7,9,11,13,-1,-1,-1,-1,-1,-1,-1,-1],"loss_changes":[1.2940978E6,2.435024E5,2.0485712E5,3.2804062E4,3.4116215E4,3.7580094E4,3.7602562E4,0E0,0E0,0E0,0E0,0E0,0E0,0E0,0E0],"parents":[2147483647,0,0,1,1,2,2,3,3,4,4,5,5,6,6],"right_children":[2,4,6,8,10,12,14,-1,-1,-1,-1,-1,-1,-1,-1],"split_conditions":[4.59E2,3E0,9.2E2,4E1,5E0,6.72E2,1.368E3,-7.5333044E-2,-4.7548346E-2,-1.7505864E-2,1.2655365E-2,3.9217453E-2,7.687565E-2,1.2476729E-1,2.0613155E-1],"split_indices":[38,15,38,38,15,38,38,0,0,0,0,0,0,0,0],"split_type":[0,0,0,0,0,0,0,0,0,0,0,0,0,0,0],"sum_hessian":[4.8337E4,3.3458E4,1.4879E4,1.705E4,1.6408E4,1.0861E4,4.018E3,8.135E3,8.915E3,1.0608E4,5.8E3,6.262E3,4.599E3,3.33E3,6.88E2],"tree_param":{"num_deleted":"0","num_feature":"43","num_nodes":"15","size_leaf_vector":"1"}},{"base_weights":[8.759386E-3,-3.4030917E0,7.9787107E0,-5.9278736E0,-3.9041042E-1,5.947955E0,1.5059929E1,-7.361509E-2,-4.4127252E-2,-1.6465105E-2,1.1159254E-2,4.413993E-2,8.573208E-2,1.3757728E-1,2.2928637E-1],"categories":[],"categories_nodes":[],"categories_segments":[],"categories_sizes":[],"default_left":[0,0,0,0,0,0,0,0,0,0,0,0,0,0,0],"id":37,"left_children":[1,3,5,7,9,11,13,-1,-1,-1,-1,-1,-1,-1,-1],"loss_changes":[1.3117015E6,2.5692544E5,2.0784844E5,3.9885438E4,2.9144096E4,4.5222094E4,3.2699188E4,0E0,0E0,0E0,0E0,0E0,0E0,0E0,0E0],"parents":[2147483647,0,0,1,1,2,2,3,3,4,4,5,5,6,6],"right_children":[2,4,6,8,10,12,14,-1,-1,-1,-1,-1,-1,-1,-1],"split_conditions":[1.6E1,8E0,2.8E1,4E0,1.2E1,2.2E1,3.9E1,-7.361509E-2,-4.4127252E-2,-1.6465105E-2,1.1159254E-2,4.413993E-2,8.573208E-2,1.3757728E-1,2.2928637E-1],"split_indices":[2,2,2,2,2,2,2,0,0,0,0,0,0,0,0],"split_type":[0,0,0,0,0,0,0,0,0,0,0,0,0,0,0],"sum_hessian":[4.8236E4,3.3777E4,1.4459E4,1.8376E4,1.5401E4,1.1238E4,3.221E3,9.44E3,8.936E3,8.398E3,7.003E3,7.095E3,4.143E3,2.766E3,4.55E2],"tree_param":{"num_deleted":"0","num_feature":"43","num_nodes":"15","size_leaf_vector":"1"}},{"base_weights":[-2.8723772E-3,-3.6475775E0,7.3405623E0,-6.1829863E0,-1.0410384E0,5.2462363E0,1.428846E1,-7.623994E-2,-4.976715E-2,-2.2974836E-2,4.3097246E-3,3.6780767E-2,7.851522E-2,1.299303E-1,2.209518E-1],"categories":[],"categories_nodes":[],"categories_segments":[],"categories_sizes":[],"default_left":[0,0,0,0,0,0,0,0,0,0,0,0,0,0,0],"id":38,"left_children":[1,3,5,7,9,11,13,-1,-1,-1,-1,-1,-1,-1,-1],"loss_changes":[1.3010566E6,2.146885E5,2.34548E5,2.85875E4,2.9629996E4,5.0594562E4,3.7475E4,0E0,0E0,0E0,0E0,0E0,0E0,0E0,0E0],"parents":[2147483647,0,0,1,1,2,2,3,3,4,4,5,5,6,6],"right_children":[2,4,6,8,10,12,14,-1,-1,-1,-1,-1,-1,-1,-1],"split_conditions":[1.5E1,7E0,2.7E1,3E0,1.1E1,2.1E1,3.8E1,-7.623994E-2,-4.976715E-2,-2.2974836E-2,4.3097246E-3,3.6780767E-2,7.851522E-2,1.299303E-1,2.209518E-1],"split_indices":[2,2,2,2,2,2,2,0,0,0,0,0,0,0,0],"split_type":[0,0,0,0,0,0,0,0,0,0,0,0,0,0,0],"sum_hessian":[4.8609E4,3.2486E4,1.6123E4,1.6467E4,1.6019E4,1.239E4,3.733E3,7.501E3,8.966E3,8.642E3,7.377E3,7.736E3,4.654E3,3.204E3,5.29E2],"tree_param":{"num_deleted":"0","num_feature":"43","num_nodes":"15","size_leaf_vector":"1"}},{"base_weights":[1.6901981E-2,-3.3441834E0,7.83979E0,-5.8099294E0,-4.0044352E-1,5.842872E0,1.4760971E1,-7.21592E-2,-4.3196682E-2,-1.6228301E-2,1.0821127E-2,4.3342937E-2,8.4006906E-2,1.3473569E-1,2.2478543E-1],"categories":[],"categories_nodes":[],"categories_segments":[],"categories_sizes":[],"default_left":[0,0,0,0,0,0,0,0,0,0,0,0,0,0,0],"id":39,"left_children":[1,3,5,7,9,11,13,-1,-1,-1,-1,-1,-1,-1,-1],"loss_changes":[1.2724688E6,2.4570566E5,2.0092681E5,3.856625E4,2.79667E4,4.3524125E4,3.20475E4,0E0,0E0,0E0,0E0,0E0,0E0,0E0,0E0],"parents":[2147483647,0,0,1,1,2,2,3,3,4,4,5,5,6,6],"right_children":[2,4,6,8,10,12,14,-1,-1,-1,-1,-1,-1,-1,-1],"split_conditions":[1.6E1,8E0,2.8E1,4E0,1.2E1,2.2E1,3.9E1,-7.21592E-2,-4.3196682E-2,-1.6228301E-2,1.0821127E-2,4.3342937E-2,8.4006906E-2,1.3473569E-1,2.2478543E-1],"split_indices":[2,2,2,2,2,2,2,0,0,0,0,0,0,0,0],"split_type":[0,0,0,0,0,0,0,0,0,0,0,0,0,0,0],"sum_hessian":[4.8393E4,3.385E4,1.4543E4,1.842E4,1.543E4,1.1288E4,3.255E3,9.476E3,8.944E3,8.457E3,6.973E3,7.102E3,4.186E3,2.792E3,4.63E2],"tree_param":{"num_deleted":"0","num_feature":"43","num_nodes":"15","size_leaf_vector":"1"}},{"base_weights":[6.4021735E-3,-3.8733563E0,6.6282406E0,-6.4628158E0,-1.7175695E0,4.004645E0,1.2181971E1,-8.094294E-2,-5.6728743E-2,-2.9672166E-2,-2.6584603E-3,2.3533916E-2,5.705652E-2,1.03561655E-1,1.7806444E-1],"categories":[],"categories_nodes":[],"categories_segments":[],"categories_sizes":[],"default_left":[0,0,0,0,0,0,0,0,0,0,0,0,0,0,0],"id":40,"left_children":[1,3,5,7,9,11,13,-1,-1,-1,-1,-1,-1,-1,-1],"loss_changes":[1.2457374E6,1.7066838E5,2.6097156E5,1.7855188E4,3.0269984E4,3.416397E4,5.8832625E4,0E0,0E0,0E0,0E0,0E0,0E0,0E0,0E0],"parents":[2147483647,0,0,1,1,2,2,3,3,4,4,5,5,6,6],"right_children":[2,4,6,8,10,12,14,-1,-1,-1,-1,-1,-1,-1,-1],"split_conditions":[1.4E1,6E0,2.4E1,2E0,1E1,1.8E1,3.3E1,-8.094294E-2,-5.6728743E-2,-2.9672166E-2,-2.6584603E-3,2.3533916E-2,5.705652E-2,1.03561655E-1,1.7806444E-1],"split_indices":[2,2,2,2,2,2,2,0,0,0,0,0,0,0,0],"split_type":[0,0,0,0,0,0,0,0,0,0,0,0,0,0,0],"sum_hessian":[4.8487E4,3.0574E4,1.7913E4,1.3889E4,1.6685E4,1.2167E4,5.746E3,4.528E3,9.361E3,8.966E3,7.719E3,6.175E3,5.992E3,4.34E3,1.406E3],"tree_param":{"num_deleted":"0","num_feature":"43","num_nodes":"15","size_leaf_vector":"1"}},{"base_weights":[-2.1062136E-2,-3.558868E0,7.1231203E0,-6.0028315E0,-1.0143411E0,5.0714903E0,1.387944E1,-7.406451E-2,-4.8283286E-2,-2.2305045E-2,4.1251043E-3,3.5674144E-2,7.6034695E-2,1.2583502E-1,2.1406448E-1],"categories":[],"categories_nodes":[],"categories_segments":[],"categories_sizes":[],"default_left":[0,0,0,0,0,0,0,0,0,0,0,0,0,0,0],"id":41,"left_children":[1,3,5,7,9,11,13,-1,-1,-1,-1,-1,-1,-1,-1],"loss_changes":[1.232396E6,2.027929E5,2.237785E5,2.7386312E4,2.7727299E4,4.715375E4,3.64175E4,0E0,0E0,0E0,0E0,0E0,0E0,0E0,0E0],"parents":[2147483647,0,0,1,1,2,2,3,3,4,4,5,5,6,6],"right_children":[2,4,6,8,10,12,14,-1,-1,-1,-1,-1,-1,-1,-1],"split_conditions":[1.5E1,7E0,2.7E1,3E0,1.1E1,2.1E1,3.8E1,-7.406451E-2,-4.8283286E-2,-2.2305045E-2,4.1251043E-3,3.5674144E-2,7.6034695E-2,1.2583502E-1,2.1406448E-1],"split_indices":[2,2,2,2,2,2,2,0,0,0,0,0,0,0,0],"split_type":[0,0,0,0,0,0,0,0,0,0,0,0,0,0,0],"sum_hessian":[4.8758E4,3.261E4,1.6148E4,1.6633E4,1.5977E4,1.2388E4,3.76E3,7.575E3,9.058E3,8.625E3,7.352E3,7.773E3,4.615E3,3.21E3,5.5E2],"tree_param":{"num_deleted":"0","num_feature":"43","num_nodes":"15","size_leaf_vector":"1"}},{"base_weights":[3.953109E-3,-3.2594101E0,7.6193657E0,-5.641285E0,-3.9596656E-1,5.670864E0,1.4369993E1,-7.010938E-2,-4.1899253E-2,-1.5781036E-2,1.0484507E-2,4.1975643E-2,8.140994E-2,1.323482E-1,2.2742528E-1],"categories":[],"categories_nodes":[],"categories_segments":[],"categories_sizes":[],"default_left":[0,0,0,0,0,0,0,0,0,0,0,0,0,0,0],"id":42,"left_children":[1,3,5,7,9,11,13,-1,-1,-1,-1,-1,-1,-1,-1],"loss_changes":[1.2034264E6,2.3119447E5,1.9098781E5,3.6755938E4,2.6286896E4,4.0994594E4,3.0616438E4,0E0,0E0,0E0,0E0,0E0,0E0,0E0,0E0],"parents":[2147483647,0,0,1,1,2,2,3,3,4,4,5,5,6,6],"right_children":[2,4,6,8,10,12,14,-1,-1,-1,-1,-1,-1,-1,-1],"split_conditions":[1.6E1,8E0,2.8E1,4E0,1.2E1,2.2E1,4E1,-7.010938E-2,-4.1899253E-2,-1.5781036E-2,1.0484507E-2,4.1975643E-2,8.140994E-2,1.323482E-1,2.2742528E-1],"split_indices":[2,2,2,2,2,2,2,0,0,0,0,0,0,0,0],"split_type":[0,0,0,0,0,0,0,0,0,0,0,0,0,0,0],"sum_hessian":[4.8422E4,3.3897E4,1.4525E4,1.8504E4,1.5393E4,1.1273E4,3.252E3,9.518E3,8.986E3,8.465E3,6.928E3,7.063E3,4.21E3,2.866E3,3.86E2],"tree_param":{"num_deleted":"0","num_feature":"43","num_nodes":"15","size_leaf_vector":"1"}},{"base_weights":[-2.2870963E-3,-3.763191E0,6.435653E0,-6.2750254E0,-1.6674349E0,4.1225514E0,1.2390474E1,-7.870739E-2,-5.5006035E-2,-3.2221053E-2,-5.6869835E-3,2.5664184E-2,6.2024873E-2,1.0672124E-1,1.7939857E-1],"categories":[],"categories_nodes":[],"categories_segments":[],"categories_sizes":[],"default_left":[0,0,0,0,0,0,0,0,0,0,0,0,0,0,0],"id":43,"left_children":[1,3,5,7,9,11,13,-1,-1,-1,-1,-1,-1,-1,-1],"loss_changes":[1.1728765E6,1.60958E5,2.4599581E5,1.7143625E4,2.8475121E4,4.1630156E4,4.7458875E4,0E0,0E0,0E0,0E0,0E0,0E0,0E0,0E0],"parents":[2147483647,0,0,1,1,2,2,3,3,4,4,5,5,6,6],"right_children":[2,4,6,8,10,12,14,-1,-1,-1,-1,-1,-1,-1,-1],"split_conditions":[1.4E1,6E0,2.5E1,2E0,9E0,1.9E1,3.4E1,-7.870739E-2,-5.5006035E-2,-3.2221053E-2,-5.6869835E-3,2.5664184E-2,6.2024873E-2,1.0672124E-1,1.7939857E-1],"split_indices":[2,2,2,2,2,2,2,0,0,0,0,0,0,0,0],"split_type":[0,0,0,0,0,0,0,0,0,0,0,0,0,0,0],"sum_hessian":[4.8439E4,3.0577E4,1.7862E4,1.3907E4,1.667E4,1.2866E4,4.996E3,4.541E3,9.366E3,6.902E3,9.768E3,7.361E3,5.505E3,3.817E3,1.179E3],"tree_param":{"num_deleted":"0","num_feature":"43","num_nodes":"15","size_leaf_vector":"1"}},{"base_weights":[-4.021383E-3,-3.172463E0,7.152774E0,-5.6374846E0,-6.743708E-1,5.065325E0,1.2865679E1,-7.789546E-2,-4.883899E-2,-1.966253E-2,6.4776763E-3,3.607829E-2,7.0995875E-2,1.1510843E-1,1.9244298E-1],"categories":[],"categories_nodes":[],"categories_segments":[],"categories_sizes":[],"default_left":[0,0,0,0,0,0,0,0,0,0,0,0,0,0,0],"id":44,"left_children":[1,3,5,7,9,11,13,-1,-1,-1,-1,-1,-1,-1,-1],"loss_changes":[1.1011185E6,2.0725719E5,1.7763525E5,2.7436188E4,2.8556406E4,3.2336562E4,3.4234062E4,0E0,0E0,0E0,0E0,0E0,0E0,0E0,0E0],"parents":[2147483647,0,0,1,1,2,2,3,3,4,4,5,5,6,6],"right_children":[2,4,6,8,10,12,14,-1,-1,-1,-1,-1,-1,-1,-1],"split_conditions":[4.59E2,1.4E2,9.2E2,6E0,2.73E2,6.72E2,1.368E3,-7.789546E-2,-4.883899E-2,-1.966253E-2,6.4776763E-3,3.607829E-2,7.0995875E-2,1.1510843E-1,1.9244298E-1],"split_indices":[38,38,38,38,38,38,38,0,0,0,0,0,0,0,0],"split_type":[0,0,0,0,0,0,0,0,0,0,0,0,0,0,0],"sum_hessian":[4.8557E4,3.3657E4,1.49E4,1.694E4,1.6717E4,1.0914E4,3.986E3,4.391E3,1.2549E4,8.455E3,8.262E3,6.36E3,4.554E3,3.29E3,6.96E2],"tree_param":{"num_deleted":"0","num_feature":"43","num_nodes":"15","size_leaf_vector":"1"}},{"base_weights":[4.530338E-3,-3.143335E0,7.125976E0,-5.756439E0,-8.265963E-1,5.030846E0,1.2744219E1,-7.7554464E-2,-5.0193194E-2,-2.0920562E-2,6.3969903E-3,3.5674788E-2,7.0340835E-2,1.1623019E-1,2.0202495E-1],"categories":[],"categories_nodes":[],"categories_segments":[],"categories_sizes":[],"default_left":[0,0,0,0,0,0,0,0,0,0,0,0,0,0,0],"id":45,"left_children":[1,3,5,7,9,11,13,-1,-1,-1,-1,-1,-1,-1,-1],"loss_changes":[1.0887211E6,2.0388388E5,1.7517E5,2.328225E4,3.312826E4,3.1766719E4,3.3573625E4,0E0,0E0,0E0,0E0,0E0,0E0,0E0,0E0],"parents":[2147483647,0,0,1,1,2,2,3,3,4,4,5,5,6,6],"right_children":[2,4,6,8,10,12,14,-1,-1,-1,-1,-1,-1,-1,-1],"split_conditions":[4.59E2,1.26E2,9.2E2,4E0,2.73E2,6.72E2,1.435E3,-7.7554464E-2,-5.0193194E-2,-2.0920562E-2,6.3969903E-3,3.5674788E-2,7.0340835E-2,1.1623019E-1,2.0202495E-1],"split_indices":[38,38,38,38,38,38,38,0,0,0,0,0,0,0,0],"split_type":[0,0,0,0,0,0,0,0,0,0,0,0,0,0,0],"sum_hessian":[4.8564E4,3.3678E4,1.4886E4,1.5826E4,1.7852E4,1.0844E4,4.042E3,4.261E3,1.1565E4,9.582E3,8.27E3,6.268E3,4.576E3,3.516E3,5.26E2],"tree_param":{"num_deleted":"0","num_feature":"43","num_nodes":"15","size_leaf_vector":"1"}},{"base_weights":[-7.1656215E-3,-3.136961E0,7.343656E0,-5.426046E0,-3.7814695E-1,5.4626117E0,1.3796546E1,-6.7498274E-2,-4.02432E-2,-1.5162687E-2,1.0126353E-2,4.0420037E-2,7.8387074E-2,1.2721942E-1,2.206629E-1],"categories":[],"categories_nodes":[],"categories_segments":[],"categories_sizes":[],"default_left":[0,0,0,0,0,0,0,0,0,0,0,0,0,0,0],"id":46,"left_children":[1,3,5,7,9,11,13,-1,-1,-1,-1,-1,-1,-1,-1],"loss_changes":[1.1143231E6,2.1453022E5,1.7549119E5,3.4423562E4,2.4387379E4,3.777728E4,2.8725438E4,0E0,0E0,0E0,0E0,0E0,0E0,0E0,0E0],"parents":[2147483647,0,0,1,1,2,2,3,3,4,4,5,5,6,6],"right_children":[2,4,6,8,10,12,14,-1,-1,-1,-1,-1,-1,-1,-1],"split_conditions":[1.6E1,8E0,2.8E1,4E0,1.2E1,2.2E1,4E1,-6.7498274E-2,-4.02432E-2,-1.5162687E-2,1.0126353E-2,4.0420037E-2,7.8387074E-2,1.2721942E-1,2.206629E-1],"split_indices":[2,2,2,2,2,2,2,0,0,0,0,0,0,0,0],"split_type":[0,0,0,0,0,0,0,0,0,0,0,0,0,0,0],"sum_hessian":[4.8433E4,3.397E4,1.4463E4,1.8565E4,1.5405E4,1.12E4,3.263E3,9.546E3,9.019E3,8.472E3,6.933E3,7.011E3,4.189E3,2.89E3,3.73E2],"tree_param":{"num_deleted":"0","num_feature":"43","num_nodes":"15","size_leaf_vector":"1"}},{"base_weights":[-5.514879E-3,-3.6311202E0,6.185907E0,-6.0505323E0,-1.6015778E0,3.7216828E0,1.13757715E1,-7.571236E-2,-5.3019363E-2,-2.7659586E-2,-2.4169001E-3,2.1848282E-2,5.3336557E-2,9.663733E-2,1.6713664E-1],"categories":[],"categories_nodes":[],"categories_segments":[],"categories_sizes":[],"default_left":[0,0,0,0,0,0,0,0,0,0,0,0,0,0,0],"id":47,"left_children":[1,3,5,7,9,11,13,-1,-1,-1,-1,-1,-1,-1,-1],"loss_changes":[1.0918762E6,1.5062362E5,2.2969906E5,1.5890469E4,2.6417227E4,3.0167656E4,5.2687438E4,0E0,0E0,0E0,0E0,0E0,0E0,0E0,0E0],"parents":[2147483647,0,0,1,1,2,2,3,3,4,4,5,5,6,6],"right_children":[2,4,6,8,10,12,14,-1,-1,-1,-1,-1,-1,-1,-1],"split_conditions":[1.4E1,6E0,2.4E1,2E0,1E1,1.8E1,3.3E1,-7.571236E-2,-5.3019363E-2,-2.7659586E-2,-2.4169001E-3,2.1848282E-2,5.3336557E-2,9.663733E-2,1.6713664E-1],"split_indices":[2,2,2,2,2,2,2,0,0,0,0,0,0,0,0],"split_type":[0,0,0,0,0,0,0,0,0,0,0,0,0,0,0],"sum_hessian":[4.8639E4,3.0676E4,1.7963E4,1.3993E4,1.6683E4,1.2181E4,5.782E3,4.613E3,9.38E3,8.987E3,7.696E3,6.237E3,5.944E3,4.38E3,1.402E3],"tree_param":{"num_deleted":"0","num_feature":"43","num_nodes":"15","size_leaf_vector":"1"}},{"base_weights":[1.5943714E-3,-3.573063E0,6.109225E0,-5.973304E0,-1.5857105E0,3.700142E0,1.1215381E1,-7.493873E-2,-5.2353725E-2,-3.0681258E-2,-5.372952E-3,2.1585379E-2,5.2809477E-2,9.059082E-2,1.5242845E-1],"categories":[],"categories_nodes":[],"categories_segments":[],"categories_sizes":[],"default_left":[0,0,0,0,0,0,0,0,0,0,0,0,0,0,0],"id":48,"left_children":[1,3,5,7,9,11,13,-1,-1,-1,-1,-1,-1,-1,-1],"loss_changes":[1.0578809E6,1.4578938E5,2.2001381E5,1.5494781E4,2.598746E4,2.9612484E4,4.9658312E4,0E0,0E0,0E0,0E0,0E0,0E0,0E0,0E0],"parents":[2147483647,0,0,1,1,2,2,3,3,4,4,5,5,6,6],"right_children":[2,4,6,8,10,12,14,-1,-1,-1,-1,-1,-1,-1,-1],"split_conditions":[1.4E1,6E0,2.4E1,2E0,9E0,1.8E1,3.1E1,-7.493873E-2,-5.2353725E-2,-3.0681258E-2,-5.372952E-3,2.1585379E-2,5.2809477E-2,9.059082E-2,1.5242845E-1],"split_indices":[2,2,2,2,2,2,2,0,0,0,0,0,0,0,0],"split_type":[0,0,0,0,0,0,0,0,0,0,0,0,0,0,0],"sum_hessian":[4.8452E4,3.0564E4,1.7888E4,1.3843E4,1.6721E4,1.2155E4,5.733E3,4.52E3,9.323E3,6.926E3,9.795E3,6.155E3,6E3,3.736E3,1.997E3],"tree_param":{"num_deleted":"0","num_feature":"43","num_nodes":"15","size_leaf_vector":"1"}},{"base_weights":[-1.1168219E-2,-3.156098E0,5.434169E0,-5.1084914E0,-1.0660844E0,2.6255746E0,9.184286E0,-7.228544E-2,-4.1525874E-2,-2.7375022E-2,9.563086E-3,2.1480788E-3,4.0998083E-2,7.068261E-2,1.3031194E-1],"categories":[],"categories_nodes":[],"categories_segments":[],"categories_sizes":[],"default_left":[0,0,0,0,0,0,0,0,0,0,0,0,0,0,0],"id":49,"left_children":[1,3,5,7,9,11,13,-1,-1,-1,-1,-1,-1,-1,-1],"loss_changes":[8.296818E5,1.2531169E5,1.8679188E5,3.2147844E4,5.0145453E4,3.604768E4,6.1732312E4,0E0,0E0,0E0,0E0,0E0,0E0,0E0,0E0],"parents":[2147483647,0,0,1,1,2,2,3,3,4,4,5,5,6,6],"right_children":[2,4,6,8,10,12,14,-1,-1,-1,-1,-1,-1,-1,-1],"split_conditions":[1.1E1,6E0,5.4571426E-1,1.111111E-1,4.9999994E-1,3.4E-1,1.9E1,-7.228544E-2,-4.1525874E-2,-2.7375022E-2,9.563086E-3,2.1480788E-3,4.0998083E-2,7.068261E-2,1.3031194E-1],"split_indices":[3,3,37,39,39,37,3,0,0,0,0,0,0,0,0],"split_type":[0,0,0,0,0,0,0,0,0,0,0,0,0,0,0],"sum_hessian":[4.8446E4,3.071E4,1.7736E4,1.5877E4,1.4833E4,1.0142E4,7.594E3,4.932E3,1.0945E4,8.121E3,6.712E3,3.849E3,6.293E3,4.901E3,2.693E3],"tree_param":{"num_deleted":"0","num_feature":"43","num_nodes":"15","size_leaf_vector":"1"}}]},"name":"gbtree"},"learner_model_param":{"base_score":"1.1837549E1","boost_from_average":"1","num_class":"0","num_feature":"43","num_target":"1"},"objective":{"name":"reg:squarederror","reg_loss_param":{"scale_pos_weight":"1"}}},"version":[2,1,2]}